%YAML:1.0
---
opencv_ml_svm:
   format: 3
   svmType: C_SVC
   kernel:
      type: RBF
      gamma: 5.0000000000000000e-01
   C: 1.2500000000000000e+01
   term_criteria: { epsilon:1.1920928955078125e-07, iterations:1000 }
   var_count: 128
   class_count: 2
   class_labels: !!opencv-matrix
      rows: 2
      cols: 1
      dt: i
      data: [ 0, 1 ]
   sv_total: 15
   support_vectors:
      - [ 7.25863874e-03, 1.29982203e-01, -2.70066708e-02,
          9.35333073e-02, 2.17832774e-02, 4.41463254e-02, 6.56219432e-03,
          4.23018187e-02, 1.12910055e-01, 8.53918085e-04, 1.41466647e-01,
          8.21116716e-02, 1.82956215e-02, -1.38349861e-01,
          -3.22740339e-02, -3.08884308e-02, -2.18242984e-02,
          4.06784378e-02, -1.76312700e-01, 7.37474859e-02,
          1.10114925e-02, -3.69944908e-02, 2.83532012e-02,
          -7.54912794e-02, -1.53285656e-02, -1.53316185e-01,
          -6.50036186e-02, -3.46075520e-02, -1.22981355e-01,
          5.67405578e-03, -7.64480047e-03, 2.39119008e-02,
          7.43593648e-02, 9.82266814e-02, -8.70989636e-02,
          9.21435375e-03, 4.35858928e-02, -2.19263826e-02,
          -1.15415305e-01, 9.14492086e-02, 8.56269747e-02,
          -3.61092389e-02, -2.35181171e-02, 8.59341212e-03,
          -1.22772999e-01, -5.66583388e-02, 2.86434144e-02,
          -7.51630589e-02, 1.23396311e-02, 1.37984887e-01,
          9.83222276e-02, 3.79552878e-02, -2.41593227e-01,
          4.67967279e-02, -1.62474941e-02, -8.24720226e-03,
          -7.96256214e-02, -1.93096831e-01, -2.40601096e-02,
          8.44177827e-02, -7.88731351e-02, -1.44615889e-01,
          -6.66530505e-02, -1.10281050e-01, 6.49282858e-02,
          -1.98611662e-01, 2.63710897e-02, 2.79328357e-02,
          -2.30180174e-02, 1.23380519e-01, 1.05974726e-01,
          5.31170070e-02, 6.10377453e-02, 9.85217933e-03,
          -8.32748506e-03, 5.39687984e-02, -3.17826346e-02,
          9.79139432e-02, -1.45036131e-01, -8.94701760e-03,
          -1.34507015e-01, -1.74282379e-02, 3.22009698e-02,
          1.20960467e-01, -4.40067351e-02, 1.82509974e-01,
          6.97394162e-02, -6.34714812e-02, -1.66446250e-02,
          -4.19820938e-03, -1.26581490e-01, -1.79139644e-01,
          -8.00477713e-02, -7.57478699e-02, -6.56349510e-02,
          -1.28735945e-01, -5.98935299e-02, -1.09731831e-01,
          -7.67277926e-02, 3.04019023e-02, -8.37062076e-02,
          1.48073733e-02, 4.07574028e-02, 4.87335436e-02, 9.69175547e-02,
          -7.77744688e-03, -1.59504209e-02, 1.62566632e-01,
          -6.82939440e-02, 3.03054396e-02, -1.42821968e-01,
          -4.77531962e-02, -4.46126163e-02, 4.05417047e-02,
          -3.75963263e-02, -1.07639901e-01, 1.57698765e-02,
          -5.43455668e-02, 6.85442761e-02, 9.59790573e-02,
          1.93046276e-02, 1.44898042e-01, -3.97399627e-02,
          1.95315033e-01, 2.28628561e-01, -1.11480586e-01,
          1.09945208e-01, 8.20285529e-02 ]
      - [ 1.82797834e-02, 2.47769758e-01, 4.40613031e-02, 1.11830592e-01,
          -6.26368821e-02, 1.29784644e-01, -4.03831191e-02,
          -3.43892537e-02, 1.35059012e-02, 6.53469339e-02,
          1.56470016e-01, -1.92363132e-02, -1.06369378e-02,
          -1.19538054e-01, -7.44793657e-03, -3.89487520e-02,
          -1.02274623e-02, 1.44488648e-01, -7.85289556e-02,
          -2.60522924e-02, 2.08315365e-02, -4.46717739e-02,
          3.41352485e-02, 2.11948212e-02, 1.06739067e-01,
          -1.92926601e-01, -4.51986380e-02, 6.03035316e-02,
          -1.84126440e-02, 3.60462442e-02, 6.16392195e-02,
          -8.53777304e-02, -3.80857438e-02, 6.84835464e-02,
          -1.11882407e-02, -3.52737270e-02, -2.68590860e-02,
          -5.97746596e-02, 6.11203909e-02, 1.07700139e-01,
          -5.43359220e-02, -4.46223393e-02, 2.09364220e-02,
          -2.02770624e-03, -4.60112207e-02, -2.48338655e-01,
          3.87044623e-02, -3.00820991e-02, -1.32006127e-02,
          1.62629411e-01, 1.93642795e-01, 1.03604205e-01,
          -1.91306055e-01, 3.34420726e-02, -1.12107649e-01,
          6.87874388e-03, -2.44616959e-02, -7.99684823e-02,
          2.95666866e-02, -3.40473726e-02, -8.68675932e-02,
          -6.44305125e-02, 2.88800262e-02, -1.76024109e-01,
          -7.04175560e-03, -6.11783974e-02, 7.08301067e-02,
          -1.08127691e-01, -1.73999384e-01, 1.62879869e-01,
          5.75755239e-02, 1.27561405e-01, 3.41844968e-02, 1.15613781e-01,
          -4.35470827e-02, -1.24116249e-01, 3.51612903e-02,
          -7.62892887e-03, -6.86856806e-02, 4.56291139e-02,
          -8.48519951e-02, -3.20417546e-02, 9.20422375e-02,
          6.16749525e-02, -1.03323543e-02, 7.59454891e-02,
          -6.32428080e-02, -1.08979784e-01, 1.12806857e-01,
          -1.90960150e-02, -1.19568087e-01, -1.51960999e-01,
          2.72131450e-02, -3.00344527e-02, 4.25907075e-02,
          -1.63328022e-01, -8.72741118e-02, 2.84146685e-02,
          -1.25904754e-01, 4.18196470e-02, -8.75452608e-02,
          8.92343074e-02, 1.03843454e-02, 1.04069188e-01, 1.21168539e-01,
          8.13462585e-02, 8.63421708e-02, 4.34401818e-02, 3.71166579e-02,
          1.73643846e-02, -9.78907645e-02, 8.71989969e-03,
          2.55793016e-02, 1.48708969e-01, -2.41766181e-02,
          -1.09177873e-01, 1.18037730e-01, 8.04780573e-02,
          1.08964503e-01, 4.39474769e-02, 1.44666955e-02,
          -2.17658654e-03, -2.53962558e-02, 4.88625057e-02,
          1.44367024e-01, -6.96918070e-02, 1.40714496e-01,
          8.44961852e-02 ]
      - [ -3.63420807e-02, 2.46496364e-01, 4.76841163e-03,
          7.28785470e-02, -8.24878365e-02, 1.31145641e-01,
          -1.56214051e-02, 5.23481630e-02, 2.86821183e-02,
          1.21711165e-01, 1.11625768e-01, 7.50288786e-03, 3.41628268e-02,
          -1.59287810e-01, -1.24681052e-02, 4.95079271e-02,
          -5.75285442e-02, 5.24358042e-02, -7.01112896e-02,
          -3.37933376e-02, 6.42686337e-02, -1.14756502e-01,
          4.23729718e-02, -6.60443911e-03, 4.76403795e-02,
          -1.49938151e-01, -4.98422459e-02, -5.05214147e-02,
          -1.26396017e-02, 5.02017885e-02, 1.91546511e-02,
          -4.15092427e-03, 4.83048707e-02, 8.52792785e-02,
          -7.48329312e-02, -4.82693799e-02, 6.08271025e-02,
          -1.83436628e-02, 3.28557976e-02, 1.08591124e-01,
          -1.64772123e-02, -1.43573985e-01, 7.35781416e-02,
          -7.78510422e-02, -1.96150281e-02, -1.75126642e-01,
          1.13305815e-01, -1.01837501e-01, -8.04191604e-02,
          1.10711075e-01, 1.80686966e-01, 4.96181101e-02,
          -1.68792218e-01, 8.76834616e-02, -1.70625113e-02,
          6.45882785e-02, 5.81563748e-02, -1.50298059e-01,
          6.68223342e-03, -3.33653502e-02, -8.54199007e-02,
          -1.03225574e-01, -2.07438525e-02, -2.23431334e-01,
          7.30598643e-02, -3.33621576e-02, 6.24995818e-03,
          -5.78960702e-02, -1.28206179e-01, 9.96061787e-02,
          -9.42106359e-03, 1.00210533e-01, -8.51107910e-02,
          7.03559592e-02, 7.61332363e-02, 6.37245458e-03, 6.44428208e-02,
          8.83078575e-02, -7.92574137e-02, 3.06672626e-03,
          -1.45924062e-01, -6.81208819e-02, 9.75507423e-02,
          1.33196548e-01, -5.35041466e-02, 1.84475362e-01,
          -1.21308519e-02, -7.38571137e-02, 9.32407007e-02,
          -1.12676444e-02, -1.64938718e-01, -1.91353038e-01,
          -3.11510935e-02, -1.95042777e-03, -1.77653637e-02,
          -7.90804401e-02, -7.04630762e-02, 7.02673793e-02,
          -5.73851801e-02, 8.55765119e-02, -4.32795584e-02,
          3.12013039e-03, -2.58193519e-02, 1.51635900e-01,
          1.35973737e-01, 5.70388958e-02, 1.33307716e-02, 9.60216969e-02,
          -6.57257438e-02, -5.99712208e-02, -2.16011360e-01,
          4.32149536e-04, 2.76261996e-02, 5.86572802e-03, 3.14982422e-02,
          -5.74136302e-02, 6.78191781e-02, 4.36224751e-02,
          9.87347662e-02, 1.18137620e-01, 5.07843643e-02, 7.35684577e-03,
          2.41616201e-02, 6.50667623e-02, 1.38545990e-01,
          -4.10383160e-04, 1.05377465e-01, 9.95745063e-02 ]
      - [ -3.76953091e-03, 1.01349115e-01, 5.00246137e-02,
          1.20668955e-01, -3.98561694e-02, 1.20452330e-01,
          -5.83873838e-02, 1.62714943e-02, 1.26394957e-01,
          6.66929781e-02, 2.00879589e-01, 2.76433770e-02,
          -3.03365868e-02, -1.61295548e-01, -5.54836355e-03,
          -3.43761407e-02, -6.16007708e-02, 1.87594339e-01,
          -6.77984506e-02, -2.00840388e-03, 9.94042754e-02,
          -3.95617634e-02, -4.49887151e-03, 6.56226352e-02,
          8.76175016e-02, -1.32421553e-01, -4.94152913e-03,
          -2.71189604e-02, -5.37408367e-02, 1.65337101e-02,
          5.30304611e-02, -8.23431984e-02, 4.00952436e-02,
          1.12649098e-01, 2.64785830e-02, 1.00917052e-02, 2.71542035e-02,
          -9.90450159e-02, 2.42259800e-02, 5.79377497e-03,
          3.18522453e-02, -8.04083869e-02, 8.95940885e-03,
          2.25079954e-02, -6.73058182e-02, -3.37494463e-01,
          2.32878737e-02, -2.11445410e-02, 4.94453982e-02,
          1.24178953e-01, 1.33981615e-01, 8.37614294e-03,
          -1.67340741e-01, 6.53255284e-02, 2.96107703e-03,
          4.99215312e-02, -4.64012213e-02, -1.68568864e-01,
          -4.42104228e-02, -4.99426499e-02, -7.77408779e-02,
          -1.54842168e-01, 3.20942923e-02, -1.23324230e-01,
          1.68376938e-02, -4.73488048e-02, 4.61880416e-02,
          -1.03078872e-01, -6.30430877e-02, 1.66998595e-01,
          -1.05057622e-03, 8.16505104e-02, 1.26210693e-02,
          2.41360217e-02, -5.69358841e-02, -1.42167553e-01,
          3.79960760e-02, 7.99132288e-02, -8.24489146e-02,
          -1.77278779e-02, -8.89538378e-02, 5.19801229e-02,
          8.74810293e-02, 4.36343923e-02, 9.77530796e-03, 1.05781130e-01,
          1.15008466e-02, -2.25006184e-03, 1.26283988e-01,
          3.16476636e-02, -4.56869416e-02, -1.46041974e-01,
          -3.33987325e-02, -2.69950945e-02, -1.99901070e-02,
          -1.38402879e-01, -1.66381717e-01, -1.14406729e-02,
          -8.69633853e-02, 3.82803082e-02, 6.73441173e-06,
          1.72144349e-03, 1.70051865e-02, -3.51193026e-02,
          2.21487805e-01, 6.90311641e-02, 1.06273428e-01,
          -4.95977923e-02, -2.39962190e-02, 4.26847860e-02,
          -1.65276110e-01, -2.89831101e-03, 3.73332091e-02,
          6.83192164e-02, 5.00716791e-02, -1.18678182e-01,
          1.44633740e-01, -8.14417191e-03, 8.09588283e-02,
          1.23999529e-02, 8.32838640e-02, 1.96256805e-02, 1.87682547e-02,
          7.32473806e-02, 1.21666938e-01, -3.92256379e-02,
          2.00262949e-01, 1.32685572e-01 ]
      - [ 9.75483954e-02, 1.07642636e-01, 2.72981804e-02, 1.82440862e-01,
          -4.52331789e-02, 5.13588153e-02, 4.18437272e-02,
          1.85443368e-03, 4.35399869e-03, 1.80817721e-03, 2.08202153e-01,
          4.97174077e-02, 4.24067266e-02, -3.38758864e-02,
          -3.96764241e-02, -1.76760219e-02, 1.00465097e-01,
          1.18086770e-01, -1.27357379e-01, 6.75319210e-02,
          7.22786337e-02, -1.35502011e-01, 4.94375788e-02,
          1.09274879e-01, 6.09783754e-02, -2.19608277e-01,
          -6.15964718e-02, 1.00438122e-03, -7.83365518e-02,
          5.03077321e-02, -2.80050877e-02, -2.16260366e-02,
          3.28662992e-02, 1.24357447e-01, -1.24049321e-01,
          -3.08152754e-02, -6.89592510e-02, 3.03210169e-02,
          -8.52088779e-02, 6.14436455e-02, -5.35893627e-02,
          -1.24697806e-02, -3.45810093e-02, -6.51203915e-02,
          -4.58100289e-02, -1.48783416e-01, -4.54761274e-03,
          -1.01444796e-01, -4.95845787e-02, 1.29856572e-01,
          1.67517722e-01, 3.96163575e-02, -1.80283085e-01,
          2.14597397e-02, -4.41986099e-02, 2.38211472e-02,
          -5.50095439e-02, -3.04014310e-02, 4.08096574e-02,
          7.31909350e-02, -5.60398214e-02, -5.78435659e-02,
          -2.67874524e-02, -1.95342973e-01, 5.15336059e-02,
          -4.63822000e-02, 9.87817068e-04, -3.98161076e-02,
          -2.07713112e-01, 1.32780552e-01, 6.88861534e-02,
          4.96719517e-02, -2.56183115e-03, 4.28344645e-02,
          -2.58201677e-02, -1.22599360e-02, 1.11449227e-01,
          8.69733375e-03, -9.29726884e-02, 2.09948868e-02,
          -1.94772005e-01, -1.23197950e-01, 1.18913054e-02,
          -5.40684797e-02, -7.84408823e-02, 1.40162572e-01,
          -1.26117291e-02, -1.67189017e-01, -1.03485724e-02,
          -1.21474303e-02, -9.88021940e-02, -1.99246809e-01,
          1.37351444e-02, -2.06724927e-02, 3.23727317e-02,
          -7.19990730e-02, -7.22732842e-02, -7.23762512e-02,
          -4.35977541e-02, 5.95835634e-02, -5.15137203e-02,
          7.38989562e-02, 1.61292788e-03, 1.28077745e-01, 1.06508374e-01,
          5.91516718e-02, 4.38781269e-02, 7.42553920e-02,
          -4.72840853e-03, -1.16285875e-01, -1.57081172e-01,
          2.25132480e-02, 4.97599803e-02, 5.96418791e-02, 3.89367007e-02,
          -4.23060656e-02, 5.50116301e-02, 4.48053591e-02,
          9.73988771e-02, 1.50113866e-01, -7.84811005e-02,
          1.93633121e-02, -1.15523718e-01, 1.40529573e-01,
          1.96383148e-01, 2.95321108e-03, 1.19692631e-01, 1.70604251e-02 ]
      - [ 8.25669840e-02, 1.13943107e-01, 6.00416474e-02, 1.78961396e-01,
          -4.18759882e-02, 4.56535220e-02, 3.43785845e-02,
          5.24117611e-03, 7.38174543e-02, 1.87871903e-02, 2.36583352e-01,
          1.14386249e-02, 4.82579470e-02, -1.18069082e-01,
          -1.46975946e-02, 1.04221525e-02, 3.87922078e-02,
          1.71832204e-01, -1.67522356e-01, 8.00623447e-02,
          1.19788393e-01, -9.62539464e-02, 2.14251503e-02,
          1.25615284e-01, 3.63482833e-02, -2.29615778e-01,
          -1.03690945e-01, -5.11050522e-02, -5.05518615e-02,
          6.38888106e-02, -1.15787312e-02, -4.22428455e-03,
          3.25219482e-02, 1.60481706e-01, -4.92884591e-02,
          -2.01043449e-02, -8.91423959e-04, -2.63742451e-03,
          -5.19370660e-02, 3.20435688e-02, -3.40304151e-02,
          -5.87189570e-02, -2.57098917e-02, -4.41630147e-02,
          -2.71066520e-02, -1.98302150e-01, 6.64728880e-03,
          -4.77461219e-02, -3.01060155e-02, 1.38648674e-01,
          1.32673651e-01, -6.74221804e-03, -1.92923665e-01,
          3.97587083e-02, -3.99820954e-02, 2.67092958e-02,
          -5.03440611e-02, -1.23022355e-01, 5.62611083e-03,
          5.90251572e-02, -4.64981869e-02, -9.24906060e-02,
          -3.87912020e-02, -1.67501897e-01, 3.06063909e-02,
          -7.41922632e-02, 2.17082258e-02, -9.09094736e-02,
          -1.50733441e-01, 1.00334086e-01, 1.58983152e-02,
          3.23289856e-02, -1.79891591e-03, 4.03953157e-02,
          -5.63520715e-02, -8.92326757e-02, 9.77882743e-02,
          7.24186003e-02, -8.72902945e-02, 1.29761128e-02,
          -1.22432403e-01, -6.40576556e-02, -2.74641942e-02,
          -3.48117687e-02, -4.29211892e-02, 1.88465118e-01,
          -2.55757999e-02, -1.48023888e-01, 4.26521804e-03,
          3.28096934e-02, -3.31727155e-02, -1.88620657e-01,
          -2.65944414e-02, -3.96751091e-02, -2.02294532e-02,
          -6.78872094e-02, -1.53420985e-01, -6.60232753e-02,
          -4.38570604e-02, 6.52070865e-02, -1.96597236e-03,
          2.42136419e-02, -9.88466549e-04, 7.95611590e-02,
          1.89056292e-01, 4.07164954e-02, 8.69597644e-02, 6.10175543e-02,
          1.37457810e-02, -3.03742159e-02, -1.97466373e-01,
          8.42675660e-03, 2.16737539e-02, 4.00559753e-02, 2.54659764e-02,
          -4.67872620e-02, 8.84239450e-02, 1.79124344e-02,
          4.73156720e-02, 9.60225910e-02, -3.85005958e-02,
          6.50420412e-02, -8.04848596e-02, 1.97563723e-01,
          1.56818673e-01, -3.28971818e-02, 1.24989219e-01,
          2.37809140e-02 ]
      - [ -7.45414663e-03, 1.56726331e-01, 5.01097851e-02,
          1.12962656e-01, -9.31735411e-02, 1.57569587e-01,
          -7.13140070e-02, -5.27580492e-02, 8.47306699e-02,
          5.88847920e-02, 1.86517715e-01, -1.37913199e-02,
          -3.52750756e-02, -1.02485970e-01, 9.53198317e-03,
          -4.69101220e-02, -8.55834708e-02, 1.61631286e-01,
          -6.51342124e-02, -9.35149491e-02, 3.88586000e-02,
          -2.93177553e-02, 1.48966201e-02, 8.01919494e-04,
          1.13651238e-01, -1.57439530e-01, -3.01049324e-03,
          1.61401369e-02, -1.04745463e-01, 1.70546956e-02,
          7.57744536e-02, -8.69160816e-02, -1.68495011e-02,
          8.61774608e-02, 1.74484402e-02, 1.63311716e-02,
          -2.88181212e-02, -1.17054388e-01, 6.79090470e-02,
          9.98265147e-02, -1.09558599e-02, -8.45884979e-02,
          -1.69691835e-02, -5.18078776e-03, -3.51693444e-02,
          -2.85777718e-01, -3.09221400e-03, -3.19288746e-02,
          1.37338229e-02, 1.10743314e-01, 1.78374007e-01, 5.76951839e-02,
          -1.50619119e-01, 5.11085801e-02, -9.27934498e-02,
          5.22420071e-02, -2.62479931e-02, -1.12135164e-01,
          -1.11496886e-02, -1.15388790e-02, -7.14872628e-02,
          -8.65053236e-02, 2.84565631e-02, -1.45938769e-01,
          2.30928343e-02, -2.41831318e-02, 7.41102844e-02,
          -5.54769970e-02, -1.05438896e-01, 2.20146298e-01,
          4.16498706e-02, 1.06950961e-01, 2.70899814e-02, 3.03730238e-02,
          -5.25555573e-02, -1.23311669e-01, 8.32591392e-03,
          -3.35262306e-02, -1.20251477e-01, 1.83394961e-02,
          -8.44347179e-02, -5.68720233e-03, 9.11991596e-02,
          3.38263176e-02, -8.96365866e-02, 1.02186412e-01,
          -6.54200325e-03, -1.08914755e-01, 6.77628070e-02,
          7.83552788e-03, -1.00667536e-01, -1.67252451e-01,
          3.70192491e-02, -2.94509772e-02, -1.99993663e-02,
          -1.18773676e-01, -1.47019878e-01, -2.73258686e-02,
          -6.51026890e-02, 7.67116621e-02, -2.90967058e-02,
          4.08502407e-02, -1.39847696e-02, 1.40649481e-02,
          2.26224303e-01, 5.62383048e-02, 7.39981607e-02,
          -1.31317843e-02, -6.78687319e-02, 3.14399935e-02,
          -1.31928608e-01, -1.57567598e-02, 5.20043224e-02,
          7.76563138e-02, 1.71516594e-02, -9.93491411e-02,
          1.05883390e-01, 8.01898912e-02, 1.24885730e-01, 1.29523082e-02,
          8.47130269e-02, -4.24081162e-02, -4.34603030e-03,
          4.32589725e-02, 1.85707584e-01, -4.34996299e-02,
          1.59988880e-01, 1.33367434e-01 ]
      - [ 3.08936462e-02, 2.00961053e-01, 3.69545929e-02, 6.86916187e-02,
          -1.22734919e-01, 1.77191883e-01, -4.66882214e-02,
          1.63772702e-02, 4.80191521e-02, 3.06144543e-02, 1.80904984e-01,
          -3.02765183e-02, 8.94509547e-04, -6.84503838e-02,
          3.99841107e-02, -9.90607962e-02, -1.87580083e-02,
          3.55336517e-02, -6.28961325e-02, -6.28489032e-02,
          -2.61978172e-02, -3.71497497e-02, 2.16465667e-02,
          5.12769446e-02, 9.90195572e-02, -1.78761095e-01,
          4.72752787e-02, 7.30075091e-02, -6.31925985e-02,
          -2.56667044e-02, 1.04264788e-01, -1.39806747e-01,
          -2.96809536e-04, 1.03148483e-01, -5.67373261e-02,
          1.50054786e-02, -1.91541184e-02, -4.83359247e-02,
          1.20182326e-02, 1.21199004e-01, -9.96568426e-03,
          -1.14121117e-01, -4.92800362e-02, -1.97608117e-02,
          -4.02661301e-02, -2.21648514e-01, -3.21309678e-02,
          -8.90460610e-03, -3.83621417e-02, 1.40610397e-01,
          1.28032848e-01, 1.20257333e-01, -1.28853157e-01,
          2.76373364e-02, -9.61433500e-02, 5.12057915e-02,
          -9.20510069e-02, -2.50716805e-02, -4.18419391e-03,
          -3.29631604e-02, -1.45126343e-01, -5.68221770e-02,
          5.33233322e-02, -2.01760352e-01, -1.09200999e-02,
          2.69506313e-02, 9.01719332e-02, -4.33105826e-02,
          -1.90011978e-01, 1.68009087e-01, 3.09458561e-02,
          5.17607555e-02, -2.71781981e-02, 5.60523905e-02,
          5.51609732e-02, -8.27735960e-02, 4.60597277e-02,
          -4.26851586e-02, -5.52783571e-02, 9.72926766e-02,
          -1.33872047e-01, -1.18748859e-01, 1.19634032e-01,
          5.21299010e-03, -5.54024018e-02, 7.37299621e-02,
          -1.12100365e-02, -1.26986787e-01, 7.83702657e-02,
          2.93730926e-02, -7.86773190e-02, -2.04202563e-01,
          6.65505603e-02, 1.29289450e-02, 2.30934029e-03,
          -1.30639493e-01, -7.42157251e-02, -5.45692220e-02,
          -6.95328861e-02, 2.98529267e-02, -5.94473183e-02,
          9.99432206e-02, -4.16693762e-02, 6.11170083e-02,
          1.00764550e-01, 9.98787731e-02, 4.69798408e-02, 1.10765500e-02,
          -4.58802804e-02, -6.61197752e-02, -5.89630343e-02,
          2.80253477e-02, 4.47797254e-02, 1.07253656e-01, 1.90703738e-02,
          -7.95574486e-02, 6.71375394e-02, 8.68080333e-02,
          1.67508438e-01, 1.08266272e-01, 5.46273813e-02,
          -1.03950061e-01, -5.17831147e-02, 6.96107596e-02,
          1.98940814e-01, -2.35910416e-02, 1.65778279e-01,
          9.32658240e-02 ]
      - [ 3.29914317e-02, 2.27146760e-01, -1.54201509e-02,
          1.72752976e-01, -3.33399884e-02, 1.18386410e-01,
          1.62381306e-02, -5.80079518e-02, 5.62673882e-02,
          1.06130987e-01, 1.78776681e-01, -6.75588904e-04,
          1.18237939e-02, -1.47000700e-01, 2.56528221e-02,
          3.98220196e-02, -4.09622397e-03, 8.81975591e-02,
          -6.41921014e-02, -1.14928158e-02, 6.17785566e-02,
          -1.13322712e-01, -8.80519976e-04, 2.88597075e-04,
          1.39441177e-01, -1.91786870e-01, -8.65570977e-02,
          -4.09557410e-02, -3.50199491e-02, 1.05815068e-01,
          5.61683215e-02, 6.72062635e-02, -1.48244221e-02,
          1.03307053e-01, -1.93770379e-02, -1.69287603e-02,
          4.28498276e-02, -6.13652170e-02, 9.32673439e-02,
          2.99027823e-02, -5.30523248e-03, -1.31079465e-01,
          5.06626405e-02, -7.81533867e-02, -7.99107179e-03,
          -1.69831634e-01, 5.34737669e-02, -3.38825658e-02,
          -2.19960306e-02, 6.33241832e-02, 1.84395701e-01,
          9.37832892e-02, -1.53081700e-01, 1.82907674e-02,
          -3.02260481e-02, 3.01941764e-02, -4.04034331e-02,
          -1.44308209e-01, -1.84345283e-02, 2.75473334e-02,
          -8.07334483e-02, -1.37007505e-01, -5.18202409e-03,
          -2.44481355e-01, 7.64088631e-02, -3.89761454e-03,
          2.55959500e-02, -5.35663590e-02, -1.47271842e-01,
          1.00746229e-01, 5.12588536e-03, 1.46667957e-01,
          -6.55729994e-02, 4.40208130e-02, -2.05270331e-02,
          -6.44217059e-02, 1.11233160e-01, 5.92393689e-02,
          -1.10249273e-01, 6.98573589e-02, -1.05535418e-01,
          -6.28899857e-02, 4.67828959e-02, 5.11462279e-02,
          -4.42268662e-02, 1.31692082e-01, -4.39874195e-02,
          -1.09367900e-01, 6.84546530e-02, -1.73021539e-03,
          -1.14854641e-01, -1.61639825e-01, -2.76007969e-02,
          1.66854132e-02, -4.66267243e-02, -1.07095413e-01,
          -7.72871003e-02, -3.62398215e-02, -2.80578751e-02,
          4.54913378e-02, -2.31497474e-02, 1.30503448e-02,
          -2.39368081e-02, 1.08945683e-01, 1.47498205e-01,
          6.94584474e-02, 7.79848844e-02, 9.82801840e-02,
          -6.46461558e-04, 2.65731066e-02, -2.01067090e-01,
          -6.87347539e-03, -8.77902657e-03, 4.55063060e-02,
          5.31872176e-02, -9.95125473e-02, 5.37207574e-02,
          7.77123719e-02, 9.04689282e-02, 9.63961110e-02, 3.31159048e-02,
          4.53412198e-02, 1.58830173e-02, 1.34487793e-01, 1.87944129e-01,
          -2.29477007e-02, 1.44306362e-01, 4.81141917e-02 ]
      - [ 5.88914640e-02, 1.65161639e-01, -2.56671552e-02,
          1.37074500e-01, -3.71814780e-02, 1.21096551e-01,
          7.83759356e-03, 2.02581473e-02, 1.18880354e-01, 5.25359288e-02,
          2.20156342e-01, 2.51834299e-02, 1.41999964e-02,
          -1.55187324e-01, 2.41903570e-02, -1.44301290e-02,
          2.96968538e-02, 8.89631733e-02, -1.12510994e-01,
          2.18754690e-02, 3.39349695e-02, -5.14128096e-02,
          -1.67935062e-03, 1.00516811e-01, 6.20847307e-02,
          -2.15718329e-01, -2.27871146e-02, -4.05778401e-02,
          -6.67776763e-02, 4.20870632e-02, 5.43922931e-02,
          -8.72200076e-03, 3.20884138e-02, 1.56114146e-01,
          -8.13806951e-02, 8.70844815e-03, 5.76774664e-02,
          -7.65745714e-02, -2.95278225e-02, 1.02417082e-01,
          3.07010319e-02, -9.78305414e-02, -1.45706991e-02,
          -4.40069884e-02, -2.64966413e-02, -2.07022309e-01,
          1.94579177e-02, -2.77126264e-02, 1.97416591e-03,
          1.33853942e-01, 1.47779360e-01, 1.82690565e-02,
          -1.84840545e-01, 2.17775665e-02, -5.29232584e-02,
          6.62627816e-02, -9.27823260e-02, -1.12811089e-01,
          -1.06679574e-02, 6.19769171e-02, -1.09347790e-01,
          -1.19826876e-01, -7.16634700e-03, -2.43987054e-01,
          2.62371022e-02, -7.12297186e-02, 6.43480495e-02,
          -7.28618503e-02, -1.27543628e-01, 1.14749543e-01,
          -8.89359601e-03, 7.52196163e-02, -4.39760014e-02,
          5.63454740e-02, -5.61635476e-03, -7.16731548e-02,
          9.33876261e-02, 9.84606147e-02, -1.25301793e-01,
          1.79518778e-02, -1.28329307e-01, -3.40857804e-02,
          2.40129549e-02, 1.49833262e-02, -2.54478175e-02,
          1.85221240e-01, 2.08565709e-03, -1.41737416e-01,
          2.02615093e-02, 1.56502444e-02, -6.65454045e-02,
          -1.99968681e-01, -2.85908226e-02, -1.93930808e-02,
          5.06749097e-03, -8.04375559e-02, -1.20856106e-01,
          -1.05976559e-01, -4.28667478e-02, 6.26782551e-02,
          -5.28571457e-02, -9.22949705e-03, -1.66875981e-02,
          8.13625082e-02, 1.28109857e-01, 4.96580936e-02, 4.30579744e-02,
          3.30699347e-02, -8.42465982e-02, 1.06148459e-02,
          -1.59573108e-01, 8.07774067e-03, 5.04358374e-02,
          3.47224511e-02, 7.73195596e-03, -9.81623605e-02,
          6.94756284e-02, 7.74782058e-03, 9.37400311e-02, 1.00684032e-01,
          4.29113954e-02, 5.38522452e-02, -3.76882181e-02,
          1.99063838e-01, 1.63702577e-01, -5.89440912e-02,
          9.56451967e-02, 4.09272835e-02 ]
      - [ 5.11277691e-02, 1.52291968e-01, 7.40195392e-03, 1.60461158e-01,
          -6.77014738e-02, 1.13223605e-01, -1.22169349e-02,
          2.01462619e-02, 8.63471478e-02, 1.49954306e-02, 1.86990410e-01,
          3.63109000e-02, -8.00986425e-04, -1.21668130e-01,
          -2.03900356e-02, -6.18945733e-02, 1.31638879e-02,
          6.27741441e-02, -7.54068717e-02, 3.21344770e-02,
          2.73317173e-02, -8.71373862e-02, 2.18807738e-02,
          8.89038518e-02, 8.17851648e-02, -2.13448092e-01,
          -2.74024885e-02, 1.27653144e-02, -7.40089267e-02,
          2.82915384e-02, 6.47613183e-02, -7.80669302e-02,
          1.35201477e-02, 1.05371825e-01, -1.02852777e-01,
          -6.32659672e-03, -1.46985203e-02, -5.52582107e-02,
          -2.14285441e-02, 1.14424512e-01, -6.41974248e-03,
          -6.40303716e-02, -2.84106489e-02, -5.16857430e-02,
          -3.61488983e-02, -2.62703329e-01, 1.26230915e-03,
          -6.55892268e-02, 4.70567495e-02, 1.74934477e-01,
          1.54897556e-01, 8.38933364e-02, -1.60348609e-01,
          3.86628248e-02, -4.99992147e-02, 3.65391821e-02,
          -6.03568964e-02, -8.10032114e-02, 9.04099271e-03,
          2.10588798e-02, -1.09026313e-01, -8.83876607e-02,
          8.15113634e-03, -2.18086034e-01, -1.40497517e-02,
          -6.47407547e-02, 9.01684463e-02, -1.01130515e-01,
          -1.57893538e-01, 1.26551673e-01, 3.06628980e-02,
          1.02419488e-01, -1.55112036e-02, 1.09520428e-01,
          -1.66473794e-03, -6.44221827e-02, 8.98189768e-02,
          2.41575930e-02, -9.34009850e-02, 8.48589763e-02,
          -1.58139542e-01, -7.82363787e-02, 9.22112465e-02,
          3.94564383e-02, 1.82603224e-04, 1.35220438e-01,
          -9.90676880e-03, -1.09714635e-01, 6.33529425e-02,
          -4.28650044e-02, -1.05315037e-01, -1.80849642e-01,
          3.32057476e-02, -3.16118612e-03, 2.68379226e-02,
          -1.49336189e-01, -8.40030909e-02, -6.30681291e-02,
          -8.10346231e-02, 5.12288362e-02, -8.06722343e-02,
          5.26876785e-02, -7.83021841e-03, 9.38800946e-02,
          1.15769319e-01, 8.75409767e-02, 7.92617798e-02, 3.06320861e-02,
          -3.60412374e-02, -4.92678629e-03, -1.41058505e-01,
          -3.88438057e-04, 4.79657650e-02, 7.96625689e-02,
          -1.89340103e-03, -7.19510615e-02, 1.24946006e-01,
          5.31851090e-02, 1.18101679e-01, 1.11463174e-01,
          -1.93474232e-03, 1.49208130e-02, -6.25535324e-02,
          1.04825124e-01, 1.49015695e-01, -3.12267784e-02,
          1.38283998e-01, 1.03814572e-01 ]
      - [ 2.99310219e-02, 1.96418032e-01, 5.51182311e-04, 1.29515514e-01,
          -6.69328347e-02, 1.05916724e-01, -2.39381399e-02,
          1.72351003e-02, 8.85345936e-02, 4.73293662e-02, 1.83114022e-01,
          -6.13178685e-03, 1.30506577e-02, -1.04562454e-01,
          1.48944035e-02, -5.78832440e-02, 2.98396461e-02,
          8.02907944e-02, -9.48682353e-02, 2.97779636e-03,
          -1.21212623e-03, -7.80913308e-02, 2.63237171e-02,
          1.34306205e-02, 7.91622102e-02, -2.29338601e-01,
          -3.87034304e-02, 2.47053094e-02, -9.49957371e-02,
          1.34989675e-02, 7.33203515e-02, -6.25699013e-02,
          2.40277871e-02, 1.02975190e-01, -7.04485625e-02,
          3.14843748e-03, 2.55873762e-02, -4.64586318e-02,
          -1.47121912e-02, 1.06127389e-01, -1.10885119e-02,
          -6.59891292e-02, -1.87018774e-02, -4.85571362e-02,
          -3.92289795e-02, -2.07190186e-01, -3.82553553e-03,
          -4.34394144e-02, 1.72346886e-02, 1.57686844e-01,
          1.47372603e-01, 6.86863363e-02, -1.87287539e-01,
          3.33579779e-02, -9.37514454e-02, 2.85183992e-02,
          -7.30504096e-02, -1.31733313e-01, 1.63917635e-02,
          2.09410079e-02, -9.63575915e-02, -9.77199301e-02,
          -3.33602950e-02, -2.25632846e-01, 1.60382055e-02,
          -6.54895827e-02, 8.31184462e-02, -4.78175581e-02,
          -1.38072819e-01, 1.26924455e-01, 5.87783270e-02,
          8.91792998e-02, -3.54925607e-04, 6.14248998e-02,
          -2.06810441e-02, -5.90231158e-02, 6.30498081e-02,
          3.06277610e-02, -1.00430094e-01, 4.14220132e-02,
          -1.63160667e-01, -7.43622631e-02, 5.33077344e-02,
          5.03236279e-02, -2.41767764e-02, 1.43373609e-01,
          -2.27900594e-02, -1.27239972e-01, 7.11423233e-02,
          -2.49386802e-02, -1.24865122e-01, -1.90740526e-01,
          3.54215205e-02, -3.39856967e-02, 1.51488921e-02,
          -1.42535210e-01, -8.68050084e-02, -6.91337436e-02,
          -1.04113936e-01, 5.81465103e-02, -8.81895870e-02,
          4.63370979e-02, -4.60058264e-03, 8.07802156e-02,
          1.31859511e-01, 6.38104379e-02, 5.73944524e-02, 4.60487120e-02,
          -4.27417569e-02, 1.60689112e-02, -1.54134750e-01,
          -2.00280901e-02, 3.42401378e-02, 9.28159058e-02,
          -2.04271432e-02, -1.12734184e-01, 8.72108489e-02,
          4.26341370e-02, 1.14253812e-01, 7.87261650e-02, 3.90643300e-03,
          3.80128771e-02, -4.90133837e-02, 1.54695153e-01,
          2.09470853e-01, -9.42966267e-02, 1.24233015e-01,
          7.75036663e-02 ]
      - [ 9.11079813e-03, 1.95398450e-01, 3.82872708e-02, 1.21628977e-01,
          -4.36538123e-02, 1.38500422e-01, -4.91586700e-02,
          2.01448295e-02, 9.91799012e-02, 7.68909529e-02, 1.95162088e-01,
          4.09116643e-03, -2.35286187e-02, -1.20016664e-01,
          6.66573793e-02, -5.02958298e-02, 2.33381465e-02,
          8.31694603e-02, -7.07672834e-02, -5.28957471e-02,
          7.68195663e-04, -1.96796078e-02, 1.29026538e-02,
          3.83254550e-02, 1.24493480e-01, -2.00790867e-01,
          1.92573983e-02, 3.10422909e-02, -6.66562244e-02,
          -7.09790178e-03, 9.08666626e-02, -8.89215097e-02,
          2.51815245e-02, 1.07857063e-01, -5.14058210e-02,
          1.14680938e-02, 3.95290889e-02, -1.00564517e-01,
          -3.13125923e-03, 1.21480152e-01, 4.48577739e-02,
          -6.15939051e-02, -2.48721093e-02, -3.10518183e-02,
          -6.00920767e-02, -2.18177691e-01, 1.23008993e-03,
          -4.09677960e-02, 3.08706108e-02, 1.04450196e-01,
          1.79481223e-01, 7.29930550e-02, -1.94021061e-01,
          1.29655469e-02, -8.29666853e-02, 4.99275401e-02,
          -8.11913535e-02, -1.33837894e-01, -3.71502573e-03,
          1.91543978e-02, -1.11727342e-01, -1.38272345e-01,
          -3.94910909e-02, -2.07889199e-01, 4.09016907e-02,
          -5.61110750e-02, 8.63596722e-02, -3.33577804e-02,
          -1.00031130e-01, 1.80574238e-01, 4.94668521e-02,
          1.20230265e-01, 1.82443380e-03, 1.50384353e-02, 1.95194350e-03,
          -6.40577525e-02, 3.00865676e-02, 7.77496472e-02,
          -1.15567215e-01, 2.14148778e-02, -1.37049526e-01,
          -1.39370225e-02, 1.02708548e-01, 6.20845072e-02,
          -1.43671371e-02, 1.09304100e-01, 1.94412470e-02,
          -8.91259760e-02, 3.85844260e-02, -1.05362535e-02,
          -1.28811464e-01, -1.68496162e-01, 2.75756652e-03,
          -1.29250251e-02, -1.00998534e-02, -1.49318263e-01,
          -9.54547226e-02, -9.37428474e-02, -8.37521106e-02,
          5.09547591e-02, -8.31072032e-02, 2.45087966e-02,
          3.68235726e-03, 4.42817286e-02, 1.33671865e-01, 4.97073494e-02,
          5.35419583e-02, 9.77275427e-04, -5.79130910e-02,
          9.32972692e-03, -1.32787690e-01, -6.45107077e-03,
          4.18695360e-02, 9.00683701e-02, 9.99047700e-03,
          -1.33880898e-01, 4.42919843e-02, 2.84983739e-02,
          9.13403258e-02, 6.33291081e-02, 5.27356528e-02, 3.73439901e-02,
          -4.63142321e-02, 1.33620545e-01, 2.24523321e-01,
          -6.46992773e-02, 1.37222201e-01, 9.00430158e-02 ]
      - [ 2.23323517e-02, 1.81146711e-01, 4.79807593e-02, 1.42054781e-01,
          -7.99253508e-02, 1.33592024e-01, -4.51621413e-02,
          -3.06526362e-03, 1.07761219e-01, 2.82119419e-02,
          1.71635896e-01, 2.72655915e-02, -4.20392230e-02,
          -1.17140323e-01, 2.00214842e-03, -4.38950732e-02,
          -1.35876257e-02, 5.89844920e-02, -5.91512434e-02,
          -3.58437672e-02, 2.55001653e-02, -5.01028523e-02,
          4.12411243e-02, 8.01350251e-02, 1.12431645e-01,
          -1.78297058e-01, 1.93385184e-02, 2.44616549e-02,
          -4.77038361e-02, 1.73317678e-02, 9.51571837e-02,
          -7.62309283e-02, 2.99744699e-02, 1.03018932e-01,
          -6.98764920e-02, -1.53481038e-02, 7.42567703e-03,
          -1.35755874e-02, 2.49789283e-02, 1.21810064e-01,
          -7.97425769e-03, -6.56119511e-02, -3.59449834e-02,
          -8.29295814e-02, -2.54984349e-02, -2.69142210e-01,
          -3.95298330e-03, -7.87361264e-02, 3.45763415e-02,
          1.39537156e-01, 1.66889012e-01, 1.31755322e-01,
          -1.13976933e-01, 4.20129858e-02, -4.62991521e-02,
          4.90163155e-02, -1.35961380e-02, -7.93732703e-02,
          -2.85690483e-02, -2.33459137e-02, -1.31157741e-01,
          -1.14119940e-01, 2.46348996e-02, -2.22916007e-01,
          6.32366957e-03, -1.24083236e-02, 8.43160152e-02,
          -6.78711906e-02, -1.68775991e-01, 1.82040647e-01,
          2.06224639e-02, 1.03386849e-01, -4.81642596e-02,
          1.01820141e-01, 3.56130674e-02, -7.70313591e-02,
          6.85010403e-02, -3.57258064e-03, -9.72067863e-02,
          7.91877955e-02, -1.54097766e-01, -3.44251879e-02,
          1.32913455e-01, 4.02083732e-02, 1.10521661e-02, 7.15199187e-02,
          -1.07447077e-02, -7.29879215e-02, 6.90024346e-02,
          -2.84767672e-02, -1.10807128e-01, -1.76800773e-01,
          4.21350785e-02, 3.14567909e-02, 3.98655385e-02,
          -1.38447657e-01, -8.03197250e-02, -3.66507620e-02,
          -5.62035628e-02, 5.17660342e-02, -6.67262226e-02,
          3.47863510e-02, -3.91507111e-02, 1.03905275e-01,
          1.30694166e-01, 7.64126852e-02, 8.45601261e-02,
          -2.58451998e-02, -1.37071759e-02, -4.06333804e-02,
          -1.29931435e-01, 3.47081535e-02, 4.86731902e-02,
          9.30027887e-02, 5.06996401e-02, -7.20253363e-02,
          8.52654204e-02, 5.47628105e-02, 1.38590693e-01, 1.08255729e-01,
          5.18774725e-02, 8.38629715e-03, -3.68092619e-02,
          5.24906032e-02, 1.75619170e-01, -2.75132549e-03,
          1.81748241e-01, 1.09963819e-01 ]
      - [ 1.09527027e-02, 1.88953400e-01, -5.46411704e-03,
          1.31896839e-01, -7.91214034e-02, 1.11431524e-01,
          -3.19483504e-02, 1.08392444e-02, 7.66228661e-02,
          6.17780127e-02, 1.71444982e-01, 1.20796002e-02, 4.63030272e-04,
          -8.97225663e-02, -6.15361473e-03, -7.54239559e-02,
          1.98044647e-02, 8.80021006e-02, -5.76155074e-02,
          -6.17321488e-03, -7.79002206e-03, -1.01858936e-01,
          2.90431529e-02, 3.32198255e-02, 8.68857428e-02,
          -2.11294487e-01, -1.61155574e-02, 3.03536672e-02,
          -9.96351764e-02, 1.63702760e-02, 6.47998601e-02,
          -7.90402964e-02, 2.93712243e-02, 9.25139412e-02,
          -8.27173963e-02, 2.04842025e-03, 2.19176780e-03,
          -5.67878261e-02, -2.15039104e-02, 1.08150408e-01,
          -1.25091169e-02, -7.44395629e-02, -1.48004480e-02,
          -4.74488884e-02, -4.42633405e-02, -2.31901631e-01,
          6.41875155e-03, -5.38616180e-02, 1.99681111e-02,
          1.52976424e-01, 1.66541979e-01, 7.66278654e-02,
          -1.70919910e-01, 3.51187810e-02, -7.01507553e-02,
          5.26313111e-02, -5.99955097e-02, -1.06065221e-01,
          2.29562130e-02, 1.01651000e-02, -9.33999419e-02,
          -8.62081051e-02, -1.13039613e-02, -2.24776551e-01,
          2.40355041e-02, -5.01140915e-02, 7.76051655e-02,
          -6.34647831e-02, -1.52985364e-01, 1.54563040e-01,
          4.56051007e-02, 9.66804847e-02, -8.50087218e-03,
          7.61423036e-02, -9.60027706e-03, -5.07070385e-02,
          7.40144476e-02, 2.39987988e-02, -9.64798033e-02,
          2.47567482e-02, -1.90800101e-01, -7.13021755e-02,
          7.52064288e-02, 4.89121526e-02, -3.58549580e-02,
          1.23102486e-01, -1.92193706e-02, -1.17674753e-01,
          9.35238078e-02, -3.13419253e-02, -1.41061932e-01,
          -1.86044589e-01, 6.20560385e-02, -3.79312858e-02,
          3.34440134e-02, -1.46627069e-01, -8.15252736e-02,
          -5.23730442e-02, -8.96204785e-02, 5.51161133e-02,
          -8.33807960e-02, 5.86773939e-02, -5.06794080e-03,
          7.64643475e-02, 1.33396029e-01, 7.85069466e-02, 5.47209792e-02,
          2.22409684e-02, -6.37059435e-02, 3.50708258e-03,
          -1.46915734e-01, -1.29498160e-02, 5.71155287e-02,
          8.14404488e-02, -1.60418581e-02, -1.10825099e-01,
          1.11791499e-01, 4.15232442e-02, 1.37236580e-01, 8.60856548e-02,
          1.46938991e-02, 4.29913448e-03, -5.48345372e-02,
          1.08861886e-01, 1.86302394e-01, -5.61319627e-02,
          1.26541451e-01, 9.55315307e-02 ]
   decision_functions:
      -
         sv_count: 15
         rho: -3.1193178035680234e+00
         alpha: [ 1.2500000000000000e+01, 3.5962063855282618e+00,
             9.3106965353602700e+00, 1.0294282487856698e+01,
             3.7157297214356064e+00, 4.3435877733546793e+00,
             5.3839252489701712e+00, 5.5702918572006350e+00,
             -1.2500000000000000e+01, -1.2500000000000000e+01,
             -2.3734424054280292e+00, -9.3577533541107965e+00,
             -3.7400491692920759e+00, -3.2336308266710714e+00,
             -1.1009844254204348e+01 ]
         index: [ 7, 3, 2, 1, 0, 6, 5, 4, 13, 14, 12, 11, 10, 9, 8 ]
